<?xml version="1.0"?>
<opencv_storage>
<cascade>
  <stageType>BOOST</stageType>
  <featureType>HAAR</featureType>
  <height>30</height>
  <width>20</width>
  <stageParams>
    <boostType>GAB</boostType>
    <minHitRate>9.9900001287460327e-01</minHitRate>
    <maxFalseAlarm>5.0000000000000000e-01</maxFalseAlarm>
    <weightTrimRate>9.4999999999999996e-01</weightTrimRate>
    <maxDepth>1</maxDepth>
    <maxWeakCount>100</maxWeakCount></stageParams>
  <featureParams>
    <maxCatCount>0</maxCatCount>
    <featSize>1</featSize>
    <mode>BASIC</mode></featureParams>
  <stageNum>14</stageNum>
  <stages>
    <!-- stage 0 -->
    <_>
      <maxWeakCount>2</maxWeakCount>
      <stageThreshold>-1.1223852634429932e-01</stageThreshold>
      <weakClassifiers>
        <_>
          <internalNodes>
            0 -1 38 1.7675392329692841e-02</internalNodes>
          <leafValues>
            -9.7829037904739380e-01 9.1461217403411865e-01</leafValues></_>
        <_>
          <internalNodes>
            0 -1 4 2.6948058605194092e-01</internalNodes>
          <leafValues>
            -9.9013376235961914e-01 8.6605185270309448e-01</leafValues></_></weakClassifiers></_>
    <!-- stage 1 -->
    <_>
      <maxWeakCount>2</maxWeakCount>
      <stageThreshold>-2.1322661638259888e-01</stageThreshold>
      <weakClassifiers>
        <_>
          <internalNodes>
            0 -1 10 4.2838364839553833e-02</internalNodes>
          <leafValues>
            -9.1692310571670532e-01 7.9771429300308228e-01</leafValues></_>
        <_>
          <internalNodes>
            0 -1 51 8.6990304291248322e-02</internalNodes>
          <leafValues>
            -8.3479475975036621e-01 7.0369642972946167e-01</leafValues></_></weakClassifiers></_>
    <!-- stage 2 -->
    <_>
      <maxWeakCount>2</maxWeakCount>
      <stageThreshold>-3.3510342240333557e-01</stageThreshold>
      <weakClassifiers>
        <_>
          <internalNodes>
            0 -1 34 -6.9814659655094147e-03</internalNodes>
          <leafValues>
            8.3044981956481934e-01 -9.6096098423004150e-01</leafValues></_>
        <_>
          <internalNodes>
            0 -1 22 2.4035006761550903e-02</internalNodes>
          <leafValues>
            -9.3429106473922729e-01 6.2585753202438354e-01</leafValues></_></weakClassifiers></_>
    <!-- stage 3 -->
    <_>
      <maxWeakCount>2</maxWeakCount>
      <stageThreshold>-1.1793953180313110e-01</stageThreshold>
      <weakClassifiers>
        <_>
          <internalNodes>
            0 -1 9 3.4229882061481476e-02</internalNodes>
          <leafValues>
            -7.4158817529678345e-01 8.1532889604568481e-01</leafValues></_>
        <_>
          <internalNodes>
            0 -1 6 2.8309538960456848e-02</internalNodes>
          <leafValues>
            -9.3326842784881592e-01 6.4606845378875732e-01</leafValues></_></weakClassifiers></_>
    <!-- stage 4 -->
    <_>
      <maxWeakCount>4</maxWeakCount>
      <stageThreshold>-7.7612411975860596e-01</stageThreshold>
      <weakClassifiers>
        <_>
          <internalNodes>
            0 -1 50 6.5077699720859528e-02</internalNodes>
          <leafValues>
            -8.0385851860046387e-01 7.3115861415863037e-01</leafValues></_>
        <_>
          <internalNodes>
            0 -1 13 -1.8505543470382690e-02</internalNodes>
          <leafValues>
            6.3298773765563965e-01 -7.4538558721542358e-01</leafValues></_>
        <_>
          <internalNodes>
            0 -1 44 8.6429100483655930e-03</internalNodes>
          <leafValues>
            -8.9126890897750854e-01 4.0847831964492798e-01</leafValues></_>
        <_>
          <internalNodes>
            0 -1 14 2.4941261857748032e-02</internalNodes>
          <leafValues>
            -9.9183338880538940e-01 3.6464169621467590e-01</leafValues></_></weakClassifiers></_>
    <!-- stage 5 -->
    <_>
      <maxWeakCount>4</maxWeakCount>
      <stageThreshold>-3.2987555861473083e-01</stageThreshold>
      <weakClassifiers>
        <_>
          <internalNodes>
            0 -1 31 -1.4748645946383476e-02</internalNodes>
          <leafValues>
            8.2685750722885132e-01 -4.4265809655189514e-01</leafValues></_>
        <_>
          <internalNodes>
            0 -1 39 -9.6362206386402249e-04</internalNodes>
          <leafValues>
            6.5611392259597778e-01 -6.0894924402236938e-01</leafValues></_>
        <_>
          <internalNodes>
            0 -1 5 2.4687859416007996e-01</internalNodes>
          <leafValues>
            -9.7072988748550415e-01 4.0086480975151062e-01</leafValues></_>
        <_>
          <internalNodes>
            0 -1 16 -3.1664725393056870e-02</internalNodes>
          <leafValues>
            4.2764335870742798e-01 -9.4419622421264648e-01</leafValues></_></weakClassifiers></_>
    <!-- stage 6 -->
    <_>
      <maxWeakCount>4</maxWeakCount>
      <stageThreshold>-4.5920050144195557e-01</stageThreshold>
      <weakClassifiers>
        <_>
          <internalNodes>
            0 -1 21 9.1531723737716675e-03</internalNodes>
          <leafValues>
            -9.8568016290664673e-01 6.1231702566146851e-01</leafValues></_>
        <_>
          <internalNodes>
            0 -1 48 -1.8228025874122977e-04</internalNodes>
          <leafValues>
            -8.7618732452392578e-01 4.2528975009918213e-01</leafValues></_>
        <_>
          <internalNodes>
            0 -1 45 -1.8435426056385040e-02</internalNodes>
          <leafValues>
            5.3510487079620361e-01 -7.4570888280868530e-01</leafValues></_>
        <_>
          <internalNodes>
            0 -1 0 1.0536754503846169e-02</internalNodes>
          <leafValues>
            -6.9338357448577881e-01 5.5037868022918701e-01</leafValues></_></weakClassifiers></_>
    <!-- stage 7 -->
    <_>
      <maxWeakCount>6</maxWeakCount>
      <stageThreshold>-1.1115361452102661e+00</stageThreshold>
      <weakClassifiers>
        <_>
          <internalNodes>
            0 -1 11 1.6364750918000937e-03</internalNodes>
          <leafValues>
            -8.8505744934082031e-01 6.7199146747589111e-01</leafValues></_>
        <_>
          <internalNodes>
            0 -1 2 4.1338735818862915e-01</internalNodes>
          <leafValues>
            -7.9225349426269531e-01 5.3290373086929321e-01</leafValues></_>
        <_>
          <internalNodes>
            0 -1 41 1.0243646800518036e-02</internalNodes>
          <leafValues>
            -8.5231566429138184e-01 4.4753342866897583e-01</leafValues></_>
        <_>
          <internalNodes>
            0 -1 35 -1.0428829409647733e-04</internalNodes>
          <leafValues>
            -8.5611993074417114e-01 3.5301578044891357e-01</leafValues></_>
        <_>
          <internalNodes>
            0 -1 27 -1.7132401466369629e-02</internalNodes>
          <leafValues>
            6.1655348539352417e-01 -5.9022402763366699e-01</leafValues></_>
        <_>
          <internalNodes>
            0 -1 32 -1.1828337796032429e-02</internalNodes>
          <leafValues>
            3.5544976592063904e-01 -8.9305096864700317e-01</leafValues></_></weakClassifiers></_>
    <!-- stage 8 -->
    <_>
      <maxWeakCount>5</maxWeakCount>
      <stageThreshold>-2.6812705397605896e-01</stageThreshold>
      <weakClassifiers>
        <_>
          <internalNodes>
            0 -1 37 -5.6701581925153732e-03</internalNodes>
          <leafValues>
            -8.8571429252624512e-01 6.1850899457931519e-01</leafValues></_>
        <_>
          <internalNodes>
            0 -1 42 -5.4862997494637966e-03</internalNodes>
          <leafValues>
            7.5193041563034058e-01 -4.8290428519248962e-01</leafValues></_>
        <_>
          <internalNodes>
            0 -1 54 1.8837077543139458e-02</internalNodes>
          <leafValues>
            -8.7256753444671631e-01 4.6090236306190491e-01</leafValues></_>
        <_>
          <internalNodes>
            0 -1 23 1.1559764854609966e-02</internalNodes>
          <leafValues>
            3.5789078474044800e-01 -9.3573987483978271e-01</leafValues></_>
        <_>
          <internalNodes>
            0 -1 52 -1.1622832389548421e-03</internalNodes>
          <leafValues>
            2.8169837594032288e-01 -9.2584681510925293e-01</leafValues></_></weakClassifiers></_>
    <!-- stage 9 -->
    <_>
      <maxWeakCount>5</maxWeakCount>
      <stageThreshold>-7.8800952434539795e-01</stageThreshold>
      <weakClassifiers>
        <_>
          <internalNodes>
            0 -1 17 1.2385449372231960e-04</internalNodes>
          <leafValues>
            6.5573769807815552e-01 -7.0175439119338989e-01</leafValues></_>
        <_>
          <internalNodes>
            0 -1 8 2.5043021887540817e-03</internalNodes>
          <leafValues>
            -8.8474386930465698e-01 4.1014316678047180e-01</leafValues></_>
        <_>
          <internalNodes>
            0 -1 43 4.7933263704180717e-03</internalNodes>
          <leafValues>
            -5.1699036359786987e-01 7.1197080612182617e-01</leafValues></_>
        <_>
          <internalNodes>
            0 -1 26 1.9070737063884735e-02</internalNodes>
          <leafValues>
            -4.0719318389892578e-01 7.9570186138153076e-01</leafValues></_>
        <_>
          <internalNodes>
            0 -1 53 -1.8886121688410640e-04</internalNodes>
          <leafValues>
            -8.5246664285659790e-01 4.2778521776199341e-01</leafValues></_></weakClassifiers></_>
    <!-- stage 10 -->
    <_>
      <maxWeakCount>4</maxWeakCount>
      <stageThreshold>-8.1936746835708618e-01</stageThreshold>
      <weakClassifiers>
        <_>
          <internalNodes>
            0 -1 53 7.9166740761138499e-05</internalNodes>
          <leafValues>
            5.9181636571884155e-01 -9.7474747896194458e-01</leafValues></_>
        <_>
          <internalNodes>
            0 -1 33 -1.5218546614050865e-02</internalNodes>
          <leafValues>
            3.9742797613143921e-01 -8.4296691417694092e-01</leafValues></_>
        <_>
          <internalNodes>
            0 -1 36 1.7707984894514084e-02</internalNodes>
          <leafValues>
            -8.9743185043334961e-01 3.7262520194053650e-01</leafValues></_>
        <_>
          <internalNodes>
            0 -1 12 -1.8004495650529861e-02</internalNodes>
          <leafValues>
            3.2921493053436279e-01 -7.5396424531936646e-01</leafValues></_></weakClassifiers></_>
    <!-- stage 11 -->
    <_>
      <maxWeakCount>6</maxWeakCount>
      <stageThreshold>-1.6685651242733002e-01</stageThreshold>
      <weakClassifiers>
        <_>
          <internalNodes>
            0 -1 15 6.6863209940493107e-04</internalNodes>
          <leafValues>
            6.2030673027038574e-01 -7.3280942440032959e-01</leafValues></_>
        <_>
          <internalNodes>
            0 -1 19 -1.6891960054636002e-02</internalNodes>
          <leafValues>
            7.7571326494216919e-01 -3.8301429152488708e-01</leafValues></_>
        <_>
          <internalNodes>
            0 -1 40 -2.5203500408679247e-03</internalNodes>
          <leafValues>
            3.5701364278793335e-01 -9.4889712333679199e-01</leafValues></_>
        <_>
          <internalNodes>
            0 -1 28 -1.8977269530296326e-02</internalNodes>
          <leafValues>
            -9.6382528543472290e-01 2.7828565239906311e-01</leafValues></_>
        <_>
          <internalNodes>
            0 -1 1 6.2106903642416000e-03</internalNodes>
          <leafValues>
            -4.4477614760398865e-01 7.8867584466934204e-01</leafValues></_>
        <_>
          <internalNodes>
            0 -1 24 2.4361107498407364e-02</internalNodes>
          <leafValues>
            -4.0028351545333862e-01 8.4531575441360474e-01</leafValues></_></weakClassifiers></_>
    <!-- stage 12 -->
    <_>
      <maxWeakCount>6</maxWeakCount>
      <stageThreshold>-1.4893560409545898e+00</stageThreshold>
      <weakClassifiers>
        <_>
          <internalNodes>
            0 -1 7 1.7356105148792267e-02</internalNodes>
          <leafValues>
            -7.5694441795349121e-01 6.7763155698776245e-01</leafValues></_>
        <_>
          <internalNodes>
            0 -1 30 -2.4147732183337212e-02</internalNodes>
          <leafValues>
            6.7944830656051636e-01 -4.4885477423667908e-01</leafValues></_>
        <_>
          <internalNodes>
            0 -1 47 -1.5305889246519655e-04</internalNodes>
          <leafValues>
            4.5842188596725464e-01 -6.8234503269195557e-01</leafValues></_>
        <_>
          <internalNodes>
            0 -1 18 -1.8361670663580298e-04</internalNodes>
          <leafValues>
            -9.3710458278656006e-01 3.2528388500213623e-01</leafValues></_>
        <_>
          <internalNodes>
            0 -1 20 -5.9032426215708256e-03</internalNodes>
          <leafValues>
            7.7483469247817993e-01 -4.5059338212013245e-01</leafValues></_>
        <_>
          <internalNodes>
            0 -1 55 -1.8931722734123468e-03</internalNodes>
          <leafValues>
            5.2409774065017700e-01 -6.2506210803985596e-01</leafValues></_></weakClassifiers></_>
    <!-- stage 13 -->
    <_>
      <maxWeakCount>6</maxWeakCount>
      <stageThreshold>-1.9160184264183044e-01</stageThreshold>
      <weakClassifiers>
        <_>
          <internalNodes>
            0 -1 29 -2.7027880423702300e-04</internalNodes>
          <leafValues>
            -8.4841078519821167e-01 5.7609242200851440e-01</leafValues></_>
        <_>
          <internalNodes>
            0 -1 29 1.1556764366105199e-04</internalNodes>
          <leafValues>
            3.1947723031044006e-01 -9.1260427236557007e-01</leafValues></_>
        <_>
          <internalNodes>
            0 -1 3 6.0690544545650482e-02</internalNodes>
          <leafValues>
            -4.4484177231788635e-01 6.8178272247314453e-01</leafValues></_>
        <_>
          <internalNodes>
            0 -1 46 1.2647628318518400e-03</internalNodes>
          <leafValues>
            -6.5020710229873657e-01 4.9038651585578918e-01</leafValues></_>
        <_>
          <internalNodes>
            0 -1 49 7.3268231935799122e-03</internalNodes>
          <leafValues>
            -4.6656039357185364e-01 6.3515895605087280e-01</leafValues></_>
        <_>
          <internalNodes>
            0 -1 25 -5.6053232401609421e-03</internalNodes>
          <leafValues>
            8.2140755653381348e-01 -3.6827716231346130e-01</leafValues></_></weakClassifiers></_></stages>
  <features>
    <_>
      <rects>
        <_>
          0 16 4 5 -1.</_>
        <_>
          2 16 2 5 2.</_></rects>
      <tilted>0</tilted></_>
    <_>
      <rects>
        <_>
          0 18 2 4 -1.</_>
        <_>
          1 18 1 4 2.</_></rects>
      <tilted>0</tilted></_>
    <_>
      <rects>
        <_>
          1 6 18 24 -1.</_>
        <_>
          1 14 18 8 3.</_></rects>
      <tilted>0</tilted></_>
    <_>
      <rects>
        <_>
          1 10 18 2 -1.</_>
        <_>
          7 10 6 2 3.</_></rects>
      <tilted>0</tilted></_>
    <_>
      <rects>
        <_>
          2 6 16 24 -1.</_>
        <_>
          2 14 16 8 3.</_></rects>
      <tilted>0</tilted></_>
    <_>
      <rects>
        <_>
          2 7 17 21 -1.</_>
        <_>
          2 14 17 7 3.</_></rects>
      <tilted>0</tilted></_>
    <_>
      <rects>
        <_>
          2 14 9 9 -1.</_>
        <_>
          5 14 3 9 3.</_></rects>
      <tilted>0</tilted></_>
    <_>
      <rects>
        <_>
          3 4 9 23 -1.</_>
        <_>
          6 4 3 23 3.</_></rects>
      <tilted>0</tilted></_>
    <_>
      <rects>
        <_>
          3 7 6 14 -1.</_>
        <_>
          5 7 2 14 3.</_></rects>
      <tilted>0</tilted></_>
    <_>
      <rects>
        <_>
          3 15 10 9 -1.</_>
        <_>
          3 18 10 3 3.</_></rects>
      <tilted>0</tilted></_>
    <_>
      <rects>
        <_>
          4 4 3 18 -1.</_>
        <_>
          4 13 3 9 2.</_></rects>
      <tilted>0</tilted></_>
    <_>
      <rects>
        <_>
          4 5 6 13 -1.</_>
        <_>
          6 5 2 13 3.</_></rects>
      <tilted>0</tilted></_>
    <_>
      <rects>
        <_>
          4 5 4 9 -1.</_>
        <_>
          4 8 4 3 3.</_></rects>
      <tilted>0</tilted></_>
    <_>
      <rects>
        <_>
          4 5 5 9 -1.</_>
        <_>
          4 8 5 3 3.</_></rects>
      <tilted>0</tilted></_>
    <_>
      <rects>
        <_>
          4 6 12 9 -1.</_>
        <_>
          8 6 4 9 3.</_></rects>
      <tilted>0</tilted></_>
    <_>
      <rects>
        <_>
          4 8 4 1 -1.</_>
        <_>
          6 8 2 1 2.</_></rects>
      <tilted>0</tilted></_>
    <_>
      <rects>
        <_>
          4 16 12 6 -1.</_>
        <_>
          8 16 4 6 3.</_></rects>
      <tilted>0</tilted></_>
    <_>
      <rects>
        <_>
          4 18 2 1 -1.</_>
        <_>
          5 18 1 1 2.</_></rects>
      <tilted>0</tilted></_>
    <_>
      <rects>
        <_>
          4 18 3 1 -1.</_>
        <_>
          5 18 1 1 3.</_></rects>
      <tilted>0</tilted></_>
    <_>
      <rects>
        <_>
          5 0 10 6 -1.</_>
        <_>
          5 2 10 2 3.</_></rects>
      <tilted>0</tilted></_>
    <_>
      <rects>
        <_>
          5 3 9 3 -1.</_>
        <_>
          5 4 9 1 3.</_></rects>
      <tilted>0</tilted></_>
    <_>
      <rects>
        <_>
          5 4 6 11 -1.</_>
        <_>
          8 4 3 11 2.</_></rects>
      <tilted>0</tilted></_>
    <_>
      <rects>
        <_>
          5 5 12 10 -1.</_>
        <_>
          9 5 4 10 3.</_></rects>
      <tilted>0</tilted></_>
    <_>
      <rects>
        <_>
          5 10 10 10 -1.</_>
        <_>
          10 10 5 10 2.</_></rects>
      <tilted>0</tilted></_>
    <_>
      <rects>
        <_>
          5 24 10 6 -1.</_>
        <_>
          5 26 10 2 3.</_></rects>
      <tilted>0</tilted></_>
    <_>
      <rects>
        <_>
          6 3 7 3 -1.</_>
        <_>
          6 4 7 1 3.</_></rects>
      <tilted>0</tilted></_>
    <_>
      <rects>
        <_>
          6 3 9 4 -1.</_>
        <_>
          6 5 9 2 2.</_></rects>
      <tilted>0</tilted></_>
    <_>
      <rects>
        <_>
          6 5 6 6 -1.</_>
        <_>
          6 7 6 2 3.</_></rects>
      <tilted>0</tilted></_>
    <_>
      <rects>
        <_>
          6 8 10 10 -1.</_>
        <_>
          11 8 5 10 2.</_></rects>
      <tilted>0</tilted></_>
    <_>
      <rects>
        <_>
          6 20 2 1 -1.</_>
        <_>
          7 20 1 1 2.</_></rects>
      <tilted>0</tilted></_>
    <_>
      <rects>
        <_>
          6 22 11 6 -1.</_>
        <_>
          6 24 11 2 3.</_></rects>
      <tilted>0</tilted></_>
    <_>
      <rects>
        <_>
          7 5 8 6 -1.</_>
        <_>
          7 7 8 2 3.</_></rects>
      <tilted>0</tilted></_>
    <_>
      <rects>
        <_>
          7 7 10 9 -1.</_>
        <_>
          12 7 5 9 2.</_></rects>
      <tilted>0</tilted></_>
    <_>
      <rects>
        <_>
          7 8 4 14 -1.</_>
        <_>
          7 8 2 7 2.</_>
        <_>
          9 15 2 7 2.</_></rects>
      <tilted>0</tilted></_>
    <_>
      <rects>
        <_>
          7 15 6 4 -1.</_>
        <_>
          9 15 2 4 3.</_></rects>
      <tilted>0</tilted></_>
    <_>
      <rects>
        <_>
          7 19 1 2 -1.</_>
        <_>
          7 20 1 1 2.</_></rects>
      <tilted>0</tilted></_>
    <_>
      <rects>
        <_>
          8 15 7 9 -1.</_>
        <_>
          8 18 7 3 3.</_></rects>
      <tilted>0</tilted></_>
    <_>
      <rects>
        <_>
          9 3 6 19 -1.</_>
        <_>
          12 3 3 19 2.</_></rects>
      <tilted>0</tilted></_>
    <_>
      <rects>
        <_>
          9 9 6 12 -1.</_>
        <_>
          9 9 3 6 2.</_>
        <_>
          12 15 3 6 2.</_></rects>
      <tilted>0</tilted></_>
    <_>
      <rects>
        <_>
          9 15 3 3 -1.</_>
        <_>
          9 16 3 1 3.</_></rects>
      <tilted>0</tilted></_>
    <_>
      <rects>
        <_>
          10 4 4 11 -1.</_>
        <_>
          12 4 2 11 2.</_></rects>
      <tilted>0</tilted></_>
    <_>
      <rects>
        <_>
          10 11 6 12 -1.</_>
        <_>
          12 11 2 12 3.</_></rects>
      <tilted>0</tilted></_>
    <_>
      <rects>
        <_>
          10 13 1 6 -1.</_>
        <_>
          10 15 1 2 3.</_></rects>
      <tilted>0</tilted></_>
    <_>
      <rects>
        <_>
          10 16 1 6 -1.</_>
        <_>
          10 18 1 2 3.</_></rects>
      <tilted>0</tilted></_>
    <_>
      <rects>
        <_>
          11 14 6 10 -1.</_>
        <_>
          13 14 2 10 3.</_></rects>
      <tilted>0</tilted></_>
    <_>
      <rects>
        <_>
          12 5 4 9 -1.</_>
        <_>
          12 8 4 3 3.</_></rects>
      <tilted>0</tilted></_>
    <_>
      <rects>
        <_>
          12 14 3 3 -1.</_>
        <_>
          13 14 1 3 3.</_></rects>
      <tilted>0</tilted></_>
    <_>
      <rects>
        <_>
          12 15 2 4 -1.</_>
        <_>
          12 15 1 2 2.</_>
        <_>
          13 17 1 2 2.</_></rects>
      <tilted>0</tilted></_>
    <_>
      <rects>
        <_>
          13 19 2 2 -1.</_>
        <_>
          13 20 2 1 2.</_></rects>
      <tilted>0</tilted></_>
    <_>
      <rects>
        <_>
          13 20 3 6 -1.</_>
        <_>
          13 22 3 2 3.</_></rects>
      <tilted>0</tilted></_>
    <_>
      <rects>
        <_>
          14 2 3 22 -1.</_>
        <_>
          14 13 3 11 2.</_></rects>
      <tilted>0</tilted></_>
    <_>
      <rects>
        <_>
          14 8 4 21 -1.</_>
        <_>
          14 15 4 7 3.</_></rects>
      <tilted>0</tilted></_>
    <_>
      <rects>
        <_>
          15 11 2 8 -1.</_>
        <_>
          16 11 1 8 2.</_></rects>
      <tilted>0</tilted></_>
    <_>
      <rects>
        <_>
          15 18 2 1 -1.</_>
        <_>
          16 18 1 1 2.</_></rects>
      <tilted>0</tilted></_>
    <_>
      <rects>
        <_>
          16 3 1 22 -1.</_>
        <_>
          16 14 1 11 2.</_></rects>
      <tilted>0</tilted></_>
    <_>
      <rects>
        <_>
          16 5 2 10 -1.</_>
        <_>
          17 5 1 10 2.</_></rects>
      <tilted>0</tilted></_></features></cascade>
</opencv_storage>
