<?xml version="1.0"?>
<opencv_storage>
<stage9>
  <maxWeakCount>5</maxWeakCount>
  <stageThreshold>-7.8800952434539795e-01</stageThreshold>
  <weakClassifiers>
    <_>
      <internalNodes>
        0 -1 74450 1.2385449372231960e-04</internalNodes>
      <leafValues>
        6.5573769807815552e-01 -7.0175439119338989e-01</leafValues></_>
    <_>
      <internalNodes>
        0 -1 54730 2.5043021887540817e-03</internalNodes>
      <leafValues>
        -8.8474386930465698e-01 4.1014316678047180e-01</leafValues></_>
    <_>
      <internalNodes>
        0 -1 138098 4.7933263704180717e-03</internalNodes>
      <leafValues>
        -5.1699036359786987e-01 7.1197080612182617e-01</leafValues></_>
    <_>
      <internalNodes>
        0 -1 92203 1.9070737063884735e-02</internalNodes>
      <leafValues>
        -4.0719318389892578e-01 7.9570186138153076e-01</leafValues></_>
    <_>
      <internalNodes>
        0 -1 168009 -1.8886121688410640e-04</internalNodes>
      <leafValues>
        -8.5246664285659790e-01 4.2778521776199341e-01</leafValues></_></weakClassifiers></stage9>
</opencv_storage>
