<?xml version="1.0"?>
<opencv_storage>
<cascade>
  <stageType>BOOST</stageType>
  <featureType>HAAR</featureType>
  <height>30</height>
  <width>20</width>
  <stageParams>
    <boostType>GAB</boostType>
    <minHitRate>9.9500000476837158e-01</minHitRate>
    <maxFalseAlarm>5.0000000000000000e-01</maxFalseAlarm>
    <weightTrimRate>9.4999999999999996e-01</weightTrimRate>
    <maxDepth>1</maxDepth>
    <maxWeakCount>100</maxWeakCount></stageParams>
  <featureParams>
    <maxCatCount>0</maxCatCount>
    <featSize>1</featSize>
    <mode>BASIC</mode></featureParams>
  <stageNum>6</stageNum>
  <stages>
    <!-- stage 0 -->
    <_>
      <maxWeakCount>2</maxWeakCount>
      <stageThreshold>-4.9083005636930466e-02</stageThreshold>
      <weakClassifiers>
        <_>
          <internalNodes>
            0 -1 7 -1.8301971256732941e-02</internalNodes>
          <leafValues>
            9.4525903463363647e-01 -9.8266899585723877e-01</leafValues></_>
        <_>
          <internalNodes>
            0 -1 9 3.0024740844964981e-02</internalNodes>
          <leafValues>
            -9.2658501863479614e-01 9.3358594179153442e-01</leafValues></_></weakClassifiers></_>
    <!-- stage 1 -->
    <_>
      <maxWeakCount>2</maxWeakCount>
      <stageThreshold>-1.1747599393129349e-01</stageThreshold>
      <weakClassifiers>
        <_>
          <internalNodes>
            0 -1 13 6.6235870122909546e-02</internalNodes>
          <leafValues>
            -9.5596331357955933e-01 8.7298578023910522e-01</leafValues></_>
        <_>
          <internalNodes>
            0 -1 12 1.0591802420094609e-03</internalNodes>
          <leafValues>
            -8.8603973388671875e-01 8.3848732709884644e-01</leafValues></_></weakClassifiers></_>
    <!-- stage 2 -->
    <_>
      <maxWeakCount>2</maxWeakCount>
      <stageThreshold>-7.5266972184181213e-02</stageThreshold>
      <weakClassifiers>
        <_>
          <internalNodes>
            0 -1 5 5.9327680617570877e-02</internalNodes>
          <leafValues>
            -9.3406593799591064e-01 8.6337763071060181e-01</leafValues></_>
        <_>
          <internalNodes>
            0 -1 3 5.7309977710247040e-02</internalNodes>
          <leafValues>
            -8.3817595243453979e-01 8.5879898071289062e-01</leafValues></_></weakClassifiers></_>
    <!-- stage 3 -->
    <_>
      <maxWeakCount>2</maxWeakCount>
      <stageThreshold>-2.1597211062908173e-01</stageThreshold>
      <weakClassifiers>
        <_>
          <internalNodes>
            0 -1 6 2.8756141662597656e-02</internalNodes>
          <leafValues>
            -9.1764706373214722e-01 7.9633027315139771e-01</leafValues></_>
        <_>
          <internalNodes>
            0 -1 8 -2.9927071183919907e-02</internalNodes>
          <leafValues>
            7.0167493820190430e-01 -9.5652788877487183e-01</leafValues></_></weakClassifiers></_>
    <!-- stage 4 -->
    <_>
      <maxWeakCount>4</maxWeakCount>
      <stageThreshold>-7.9074668884277344e-01</stageThreshold>
      <weakClassifiers>
        <_>
          <internalNodes>
            0 -1 0 1.0608180612325668e-01</internalNodes>
          <leafValues>
            -9.1285401582717896e-01 7.1779143810272217e-01</leafValues></_>
        <_>
          <internalNodes>
            0 -1 4 9.9938772618770599e-03</internalNodes>
          <leafValues>
            -8.7791889905929565e-01 6.5743768215179443e-01</leafValues></_>
        <_>
          <internalNodes>
            0 -1 15 -7.3692044243216515e-03</internalNodes>
          <leafValues>
            5.4170799255371094e-01 -8.7752950191497803e-01</leafValues></_>
        <_>
          <internalNodes>
            0 -1 11 1.2891530059278011e-03</internalNodes>
          <leafValues>
            -9.0206432342529297e-01 4.5831820368766785e-01</leafValues></_></weakClassifiers></_>
    <!-- stage 5 -->
    <_>
      <maxWeakCount>4</maxWeakCount>
      <stageThreshold>-5.5398190021514893e-01</stageThreshold>
      <weakClassifiers>
        <_>
          <internalNodes>
            0 -1 1 8.2642193883657455e-03</internalNodes>
          <leafValues>
            -8.2435131072998047e-01 7.3976343870162964e-01</leafValues></_>
        <_>
          <internalNodes>
            0 -1 10 2.7252279687672853e-03</internalNodes>
          <leafValues>
            -7.6894080638885498e-01 6.7406910657882690e-01</leafValues></_>
        <_>
          <internalNodes>
            0 -1 2 1.0575424134731293e-01</internalNodes>
          <leafValues>
            -9.6660035848617554e-01 5.1290208101272583e-01</leafValues></_>
        <_>
          <internalNodes>
            0 -1 14 1.7916166689246893e-03</internalNodes>
          <leafValues>
            -9.0492141246795654e-01 5.2640807628631592e-01</leafValues></_></weakClassifiers></_></stages>
  <features>
    <_>
      <rects>
        <_>
          1 11 17 12 -1.</_>
        <_>
          1 15 17 4 3.</_></rects>
      <tilted>0</tilted></_>
    <_>
      <rects>
        <_>
          2 8 6 4 -1.</_>
        <_>
          2 8 3 2 2.</_>
        <_>
          5 10 3 2 2.</_></rects>
      <tilted>0</tilted></_>
    <_>
      <rects>
        <_>
          3 8 17 10 -1.</_>
        <_>
          3 13 17 5 2.</_></rects>
      <tilted>0</tilted></_>
    <_>
      <rects>
        <_>
          3 9 15 3 -1.</_>
        <_>
          8 9 5 3 3.</_></rects>
      <tilted>0</tilted></_>
    <_>
      <rects>
        <_>
          3 10 6 2 -1.</_>
        <_>
          6 10 3 2 2.</_></rects>
      <tilted>0</tilted></_>
    <_>
      <rects>
        <_>
          5 4 2 24 -1.</_>
        <_>
          5 12 2 8 3.</_></rects>
      <tilted>0</tilted></_>
    <_>
      <rects>
        <_>
          5 8 12 4 -1.</_>
        <_>
          5 10 12 2 2.</_></rects>
      <tilted>0</tilted></_>
    <_>
      <rects>
        <_>
          5 9 6 6 -1.</_>
        <_>
          5 9 3 3 2.</_>
        <_>
          8 12 3 3 2.</_></rects>
      <tilted>0</tilted></_>
    <_>
      <rects>
        <_>
          6 13 9 7 -1.</_>
        <_>
          9 13 3 7 3.</_></rects>
      <tilted>0</tilted></_>
    <_>
      <rects>
        <_>
          8 10 10 6 -1.</_>
        <_>
          8 10 5 3 2.</_>
        <_>
          13 13 5 3 2.</_></rects>
      <tilted>0</tilted></_>
    <_>
      <rects>
        <_>
          8 22 2 4 -1.</_>
        <_>
          8 24 2 2 2.</_></rects>
      <tilted>0</tilted></_>
    <_>
      <rects>
        <_>
          10 14 2 2 -1.</_>
        <_>
          11 14 1 2 2.</_></rects>
      <tilted>0</tilted></_>
    <_>
      <rects>
        <_>
          10 15 1 2 -1.</_>
        <_>
          10 16 1 1 2.</_></rects>
      <tilted>0</tilted></_>
    <_>
      <rects>
        <_>
          12 4 4 16 -1.</_>
        <_>
          12 12 4 8 2.</_></rects>
      <tilted>0</tilted></_>
    <_>
      <rects>
        <_>
          12 10 2 4 -1.</_>
        <_>
          12 10 1 2 2.</_>
        <_>
          13 12 1 2 2.</_></rects>
      <tilted>0</tilted></_>
    <_>
      <rects>
        <_>
          13 9 4 5 -1.</_>
        <_>
          15 9 2 5 2.</_></rects>
      <tilted>0</tilted></_></features></cascade>
</opencv_storage>
