<?xml version="1.0"?>
<opencv_storage>
<cascade>
  <stageType>BOOST</stageType>
  <featureType>HAAR</featureType>
  <height>30</height>
  <width>20</width>
  <stageParams>
    <boostType>GAB</boostType>
    <minHitRate>9.9500000476837158e-01</minHitRate>
    <maxFalseAlarm>5.0000000000000000e-01</maxFalseAlarm>
    <weightTrimRate>9.4999999999999996e-01</weightTrimRate>
    <maxDepth>1</maxDepth>
    <maxWeakCount>100</maxWeakCount></stageParams>
  <featureParams>
    <maxCatCount>0</maxCatCount>
    <featSize>1</featSize>
    <mode>BASIC</mode></featureParams>
  <stageNum>10</stageNum>
  <stages>
    <!-- stage 0 -->
    <_>
      <maxWeakCount>2</maxWeakCount>
      <stageThreshold>-5.2441559731960297e-02</stageThreshold>
      <weakClassifiers>
        <_>
          <internalNodes>
            0 -1 19 -8.5220653563737869e-03</internalNodes>
          <leafValues>
            8.9048993587493896e-01 -9.4275492429733276e-01</leafValues></_>
        <_>
          <internalNodes>
            0 -1 3 2.2630529105663300e-01</internalNodes>
          <leafValues>
            -9.1083538532257080e-01 8.9031338691711426e-01</leafValues></_></weakClassifiers></_>
    <!-- stage 1 -->
    <_>
      <maxWeakCount>2</maxWeakCount>
      <stageThreshold>-2.1041753888130188e-01</stageThreshold>
      <weakClassifiers>
        <_>
          <internalNodes>
            0 -1 11 3.0137732625007629e-02</internalNodes>
          <leafValues>
            -9.4371479749679565e-01 8.4629803895950317e-01</leafValues></_>
        <_>
          <internalNodes>
            0 -1 24 2.0053267478942871e-02</internalNodes>
          <leafValues>
            -9.4826442003250122e-01 7.3329728841781616e-01</leafValues></_></weakClassifiers></_>
    <!-- stage 2 -->
    <_>
      <maxWeakCount>4</maxWeakCount>
      <stageThreshold>-8.6920505762100220e-01</stageThreshold>
      <weakClassifiers>
        <_>
          <internalNodes>
            0 -1 6 3.2921142876148224e-02</internalNodes>
          <leafValues>
            -9.1600000858306885e-01 7.7999997138977051e-01</leafValues></_>
        <_>
          <internalNodes>
            0 -1 10 2.5979569181799889e-03</internalNodes>
          <leafValues>
            -8.5291779041290283e-01 5.9858614206314087e-01</leafValues></_>
        <_>
          <internalNodes>
            0 -1 22 1.2675286270678043e-02</internalNodes>
          <leafValues>
            -9.1759562492370605e-01 4.6581652760505676e-01</leafValues></_>
        <_>
          <internalNodes>
            0 -1 20 -3.5209297202527523e-03</internalNodes>
          <leafValues>
            4.3389618396759033e-01 -9.7364991903305054e-01</leafValues></_></weakClassifiers></_>
    <!-- stage 3 -->
    <_>
      <maxWeakCount>3</maxWeakCount>
      <stageThreshold>-9.2778152227401733e-01</stageThreshold>
      <weakClassifiers>
        <_>
          <internalNodes>
            0 -1 8 1.2561863660812378e-01</internalNodes>
          <leafValues>
            -9.4094491004943848e-01 8.0402928590774536e-01</leafValues></_>
        <_>
          <internalNodes>
            0 -1 4 -2.6850052177906036e-02</internalNodes>
          <leafValues>
            8.0312865972518921e-01 -6.2425166368484497e-01</leafValues></_>
        <_>
          <internalNodes>
            0 -1 29 -3.9839588105678558e-02</internalNodes>
          <leafValues>
            6.3741499185562134e-01 -7.2585082054138184e-01</leafValues></_></weakClassifiers></_>
    <!-- stage 4 -->
    <_>
      <maxWeakCount>2</maxWeakCount>
      <stageThreshold>-2.4427795410156250e-01</stageThreshold>
      <weakClassifiers>
        <_>
          <internalNodes>
            0 -1 30 -1.5761330723762512e-03</internalNodes>
          <leafValues>
            6.9538730382919312e-01 -8.8470065593719482e-01</leafValues></_>
        <_>
          <internalNodes>
            0 -1 27 9.0951591730117798e-02</internalNodes>
          <leafValues>
            -7.1652334928512573e-01 6.4042270183563232e-01</leafValues></_></weakClassifiers></_>
    <!-- stage 5 -->
    <_>
      <maxWeakCount>3</maxWeakCount>
      <stageThreshold>-7.7449160814285278e-01</stageThreshold>
      <weakClassifiers>
        <_>
          <internalNodes>
            0 -1 12 -2.5141589343547821e-02</internalNodes>
          <leafValues>
            6.6866952180862427e-01 -8.7126433849334717e-01</leafValues></_>
        <_>
          <internalNodes>
            0 -1 13 2.3448508232831955e-02</internalNodes>
          <leafValues>
            -6.5734153985977173e-01 7.5091987848281860e-01</leafValues></_>
        <_>
          <internalNodes>
            0 -1 0 1.4323197305202484e-02</internalNodes>
          <leafValues>
            -5.0487601757049561e-01 7.5411432981491089e-01</leafValues></_></weakClassifiers></_>
    <!-- stage 6 -->
    <_>
      <maxWeakCount>5</maxWeakCount>
      <stageThreshold>-9.2840844392776489e-01</stageThreshold>
      <weakClassifiers>
        <_>
          <internalNodes>
            0 -1 14 1.6207247972488403e-03</internalNodes>
          <leafValues>
            -8.4183675050735474e-01 6.0430461168289185e-01</leafValues></_>
        <_>
          <internalNodes>
            0 -1 1 1.2229811400175095e-02</internalNodes>
          <leafValues>
            -8.8025528192520142e-01 4.4143125414848328e-01</leafValues></_>
        <_>
          <internalNodes>
            0 -1 18 2.3476041853427887e-02</internalNodes>
          <leafValues>
            -5.7642799615859985e-01 6.8036472797393799e-01</leafValues></_>
        <_>
          <internalNodes>
            0 -1 16 4.3437846004962921e-02</internalNodes>
          <leafValues>
            -4.8009136319160461e-01 7.8246033191680908e-01</leafValues></_>
        <_>
          <internalNodes>
            0 -1 2 -6.3992813229560852e-02</internalNodes>
          <leafValues>
            5.3401386737823486e-01 -7.3403531312942505e-01</leafValues></_></weakClassifiers></_>
    <!-- stage 7 -->
    <_>
      <maxWeakCount>5</maxWeakCount>
      <stageThreshold>-9.0047848224639893e-01</stageThreshold>
      <weakClassifiers>
        <_>
          <internalNodes>
            0 -1 26 2.4288304150104523e-02</internalNodes>
          <leafValues>
            -7.3451328277587891e-01 6.3763064146041870e-01</leafValues></_>
        <_>
          <internalNodes>
            0 -1 9 1.6122810542583466e-01</internalNodes>
          <leafValues>
            -7.4431413412094116e-01 4.7373929619789124e-01</leafValues></_>
        <_>
          <internalNodes>
            0 -1 23 -4.0574371814727783e-03</internalNodes>
          <leafValues>
            7.7276730537414551e-01 -4.3403911590576172e-01</leafValues></_>
        <_>
          <internalNodes>
            0 -1 4 -3.0819911509752274e-02</internalNodes>
          <leafValues>
            6.8537974357604980e-01 -4.7049385309219360e-01</leafValues></_>
        <_>
          <internalNodes>
            0 -1 28 -1.2307518045417964e-04</internalNodes>
          <leafValues>
            -9.3230998516082764e-01 2.7607545256614685e-01</leafValues></_></weakClassifiers></_>
    <!-- stage 8 -->
    <_>
      <maxWeakCount>4</maxWeakCount>
      <stageThreshold>-4.1974222660064697e-01</stageThreshold>
      <weakClassifiers>
        <_>
          <internalNodes>
            0 -1 25 -1.3900833204388618e-02</internalNodes>
          <leafValues>
            6.2807017564773560e-01 -6.8695652484893799e-01</leafValues></_>
        <_>
          <internalNodes>
            0 -1 17 2.1675582975149155e-02</internalNodes>
          <leafValues>
            -4.2650219798088074e-01 7.9559880495071411e-01</leafValues></_>
        <_>
          <internalNodes>
            0 -1 7 9.6757158637046814e-02</internalNodes>
          <leafValues>
            -8.0521440505981445e-01 4.2386046051979065e-01</leafValues></_>
        <_>
          <internalNodes>
            0 -1 21 7.8497524373233318e-04</internalNodes>
          <leafValues>
            -9.5224493741989136e-01 3.6845830082893372e-01</leafValues></_></weakClassifiers></_>
    <!-- stage 9 -->
    <_>
      <maxWeakCount>3</maxWeakCount>
      <stageThreshold>2.7603343129158020e-02</stageThreshold>
      <weakClassifiers>
        <_>
          <internalNodes>
            0 -1 31 -6.9317851739469916e-05</internalNodes>
          <leafValues>
            -7.4869108200073242e-01 5.6321841478347778e-01</leafValues></_>
        <_>
          <internalNodes>
            0 -1 15 8.8010594481602311e-05</internalNodes>
          <leafValues>
            3.6307892203330994e-01 -7.8897565603256226e-01</leafValues></_>
        <_>
          <internalNodes>
            0 -1 5 5.0367116928100586e-03</internalNodes>
          <leafValues>
            -7.7932024002075195e-01 4.1321551799774170e-01</leafValues></_></weakClassifiers></_></stages>
  <features>
    <_>
      <rects>
        <_>
          0 9 4 10 -1.</_>
        <_>
          0 9 2 5 2.</_>
        <_>
          2 14 2 5 2.</_></rects>
      <tilted>0</tilted></_>
    <_>
      <rects>
        <_>
          1 14 18 4 -1.</_>
        <_>
          1 16 18 2 2.</_></rects>
      <tilted>0</tilted></_>
    <_>
      <rects>
        <_>
          2 2 6 15 -1.</_>
        <_>
          2 7 6 5 3.</_></rects>
      <tilted>0</tilted></_>
    <_>
      <rects>
        <_>
          2 8 16 18 -1.</_>
        <_>
          2 14 16 6 3.</_></rects>
      <tilted>0</tilted></_>
    <_>
      <rects>
        <_>
          3 10 8 6 -1.</_>
        <_>
          3 10 4 3 2.</_>
        <_>
          7 13 4 3 2.</_></rects>
      <tilted>0</tilted></_>
    <_>
      <rects>
        <_>
          3 15 6 6 -1.</_>
        <_>
          3 17 6 2 3.</_></rects>
      <tilted>0</tilted></_>
    <_>
      <rects>
        <_>
          4 5 12 9 -1.</_>
        <_>
          8 5 4 9 3.</_></rects>
      <tilted>0</tilted></_>
    <_>
      <rects>
        <_>
          4 6 4 21 -1.</_>
        <_>
          4 13 4 7 3.</_></rects>
      <tilted>0</tilted></_>
    <_>
      <rects>
        <_>
          4 6 14 12 -1.</_>
        <_>
          4 12 14 6 2.</_></rects>
      <tilted>0</tilted></_>
    <_>
      <rects>
        <_>
          4 6 15 12 -1.</_>
        <_>
          4 12 15 6 2.</_></rects>
      <tilted>0</tilted></_>
    <_>
      <rects>
        <_>
          4 10 2 10 -1.</_>
        <_>
          5 10 1 10 2.</_></rects>
      <tilted>0</tilted></_>
    <_>
      <rects>
        <_>
          5 6 2 14 -1.</_>
        <_>
          5 13 2 7 2.</_></rects>
      <tilted>0</tilted></_>
    <_>
      <rects>
        <_>
          5 7 6 14 -1.</_>
        <_>
          5 7 3 7 2.</_>
        <_>
          8 14 3 7 2.</_></rects>
      <tilted>0</tilted></_>
    <_>
      <rects>
        <_>
          5 8 10 4 -1.</_>
        <_>
          5 10 10 2 2.</_></rects>
      <tilted>0</tilted></_>
    <_>
      <rects>
        <_>
          5 9 2 6 -1.</_>
        <_>
          6 9 1 6 2.</_></rects>
      <tilted>0</tilted></_>
    <_>
      <rects>
        <_>
          5 15 1 2 -1.</_>
        <_>
          5 16 1 1 2.</_></rects>
      <tilted>0</tilted></_>
    <_>
      <rects>
        <_>
          5 21 11 9 -1.</_>
        <_>
          5 24 11 3 3.</_></rects>
      <tilted>0</tilted></_>
    <_>
      <rects>
        <_>
          6 22 8 6 -1.</_>
        <_>
          6 24 8 2 3.</_></rects>
      <tilted>0</tilted></_>
    <_>
      <rects>
        <_>
          7 11 12 4 -1.</_>
        <_>
          7 11 6 2 2.</_>
        <_>
          13 13 6 2 2.</_></rects>
      <tilted>0</tilted></_>
    <_>
      <rects>
        <_>
          7 14 6 4 -1.</_>
        <_>
          9 14 2 4 3.</_></rects>
      <tilted>0</tilted></_>
    <_>
      <rects>
        <_>
          7 15 4 4 -1.</_>
        <_>
          9 15 2 4 2.</_></rects>
      <tilted>0</tilted></_>
    <_>
      <rects>
        <_>
          7 15 8 3 -1.</_>
        <_>
          11 15 4 3 2.</_></rects>
      <tilted>0</tilted></_>
    <_>
      <rects>
        <_>
          8 14 6 9 -1.</_>
        <_>
          8 17 6 3 3.</_></rects>
      <tilted>0</tilted></_>
    <_>
      <rects>
        <_>
          9 6 3 3 -1.</_>
        <_>
          9 7 3 1 3.</_></rects>
      <tilted>0</tilted></_>
    <_>
      <rects>
        <_>
          9 8 6 12 -1.</_>
        <_>
          9 8 3 6 2.</_>
        <_>
          12 14 3 6 2.</_></rects>
      <tilted>0</tilted></_>
    <_>
      <rects>
        <_>
          10 7 6 6 -1.</_>
        <_>
          13 7 3 6 2.</_></rects>
      <tilted>0</tilted></_>
    <_>
      <rects>
        <_>
          10 13 9 8 -1.</_>
        <_>
          13 13 3 8 3.</_></rects>
      <tilted>0</tilted></_>
    <_>
      <rects>
        <_>
          13 5 4 16 -1.</_>
        <_>
          13 13 4 8 2.</_></rects>
      <tilted>0</tilted></_>
    <_>
      <rects>
        <_>
          13 17 1 2 -1.</_>
        <_>
          13 18 1 1 2.</_></rects>
      <tilted>0</tilted></_>
    <_>
      <rects>
        <_>
          14 3 4 15 -1.</_>
        <_>
          14 8 4 5 3.</_></rects>
      <tilted>0</tilted></_>
    <_>
      <rects>
        <_>
          14 10 2 7 -1.</_>
        <_>
          15 10 1 7 2.</_></rects>
      <tilted>0</tilted></_>
    <_>
      <rects>
        <_>
          14 17 2 1 -1.</_>
        <_>
          15 17 1 1 2.</_></rects>
      <tilted>0</tilted></_></features></cascade>
</opencv_storage>
